5 100
am -0.0082155 0.0077847 -0.006177 -0.0020433 0.0047618 0.001276 0.0061633 0.00037806 0.0096946 0.0091692 -0.0015257 0.0030593 0.0090754 0.0070897 -0.0040696 -0.0017363 0.00044939 0.0057919 0.00098825 -0.0080477 -0.0014187 0.0068551 0.0054813 -0.0061286 0.0056192 -0.0063213 0.0016279 -0.0037028 -0.0017907 0.0096232 -0.0066928 -0.0032709 -0.0083629 -0.0064375 -0.0090785 -0.00077587 0.003496 -0.0085379 -0.0022033 -0.0066826 0.0096378 0.0073333 0.0034546 0.0017769 -0.0048019 0.0018763 -0.0044907 -0.0045138 -0.0080222 0.0026784 -0.0082496 0.0078212 -0.0062347 -0.0020615 0.0048479 0.0011737 0.006221 0.00021481 0.0097189 0.0091967 -0.0014517 0.002997 0.0091036 0.0071384 -0.0041291 -0.0016597 0.00027233 0.0057605 0.00080956 -0.0080901 -0.0013048 0.0068677 0.0053847 -0.0061951 0.0055883 -0.0063874 0.001546 -0.0037615 -0.0017083 0.0096615 -0.0067059 -0.0032177 -0.0084085 -0.0065121 -0.0091202 -0.00059584 0.0035465 -0.0085825 -0.0022132 -0.0066789 0.0096341 0.0073707 0.0035198 0.0017026 -0.0048753 0.0018003 -0.0045711 -0.0045937 -0.0080463 0.0026212 
i -0.0065148 0.0056169 -0.0023832 0.0059168 -0.00036794 -0.0075162 0.0023546 -0.0093877 0.0095963 0.0085014 0.0069953 -0.0038807 0.0083061 0.0042495 0.0018109 0.0065566 -0.0092528 0.0015876 -0.0081263 -0.0061751 0.0072265 0.0037536 0.00093821 -0.0022914 0.0012265 -0.0026944 -0.0067892 0.0025798 0.006449 0.0094693 -0.0034143 0.0034261 -0.0068424 -0.0029558 -0.0083344 0.008574 -0.0030305 -0.0072072 0.0055979 -0.0033577 0.0094538 0.0047461 -0.0030924 -0.006469 0.00029839 -0.0062628 0.00094367 0.00089581 -0.0061036 -0.0046704 -0.0048483 0.0034856 0.0013529 -0.0061411 -0.0054116 0.0035893 -0.0013963 0.00068331 0.0095223 0.0078611 -0.0044097 0.0091169 0.0075649 0.0014578 0.0076319 -0.0050739 0.00086804 -0.0026481 0.0025805 -0.0043449 -0.0040144 0.00066484 -0.0037014 0.0014793 -0.003197 0.00086636 0.0047117 0.0088038 -0.0052289 0.0093538 -0.00014902 -0.0098238 -0.0053598 0.00046889 -0.0076282 -0.0018993 -0.009489 -0.0059144 -0.0066219 -6.2976e-05 0.0092663 0.0021963 -0.0095741 0.0052109 0.0053253 0.0055221 0.0062977 0.0062256 -0.0042091 0.0079235 
</s> -0.0031135 0.0012813 0.0052044 0.0018372 0.0093726 -0.0051007 -0.0052627 -0.0089192 0.0093997 0.0071658 0.0040373 0.0022393 0.0067674 -0.001431 -0.0064281 0.0031424 -0.008657 -0.006821 -0.0063554 -0.0024299 0.0045169 -0.0024493 -0.0081479 0.0053829 -0.0075588 0.0045593 -0.0036236 -0.0048549 0.0029284 0.0091616 0.0031426 -0.00318 -0.0037937 0.0040251 -0.0068424 0.0072706 0.003934 -0.004539 0.0011892 0.0032582 0.009086 -0.00042832 0.0038138 -0.0029608 -0.009501 -0.002541 -0.0081875 -0.0082849 -0.0022664 0.00063182 -0.001447 -0.0008499 0.0089405 0.0097792 0.0043289 0.0060049 -0.0090136 0.0011518 0.0093257 0.0065256 -0.0073676 -0.0047631 0.0060262 -0.0042227 -0.00060702 -0.0084881 0.0014638 0.0089433 0.0043514 -0.00059975 -0.006724 -0.0055381 0.0072124 0.0091536 0.0080177 0.0081201 0.0078774 0.001369 -0.0087495 0.009046 0.0064079 0.0035702 -0.0023111 0.0074498 -0.0061362 -0.0032027 -0.0025245 -0.0032463 0.0089694 0.006553 0.0088984 -0.0029782 -0.002668 0.0087191 -0.0044741 0.0092439 -0.0028335 -0.0029552 -0.00037192 -0.0067743 
who 0.00012773 -0.0029175 -0.007386 -0.0021606 -0.00095003 -0.0028085 0.0072972 -0.0086227 0.0094424 0.0060413 0.0011891 0.0086252 0.0054348 -0.0073055 0.0054337 -0.00017339 -0.00821 0.0049275 -0.0047103 0.0011743 0.0019149 -0.0088648 0.0029098 -0.0071141 0.0038056 -0.0083667 -0.00055681 0.007833 -0.00050023 0.0090622 0.009919 -0.01006 -0.00089973 -0.009179 -0.0055356 0.0061026 -0.0092333 -0.0020331 -0.0031449 0.010095 0.0089408 -0.0057927 -0.0094152 0.0004523 0.00077038 0.0010905 0.0027669 0.0026189 0.0014253 0.0061846 0.0018286 -0.0050885 -0.0035839 0.0058044 -0.0060915 0.0088009 0.0034801 0.0016348 0.0093537 0.0053796 0.0096985 0.0013149 0.0046708 -0.010154 -0.009061 0.0081065 0.0020787 0.0007389 0.0061793 0.0030285 -0.0098268 0.0084155 -0.0019972 -0.0032811 -0.00057558 -0.0047488 -0.0089738 -0.0062548 0.0077352 0.0089658 -0.0071803 -0.0030112 0.00059832 -0.0057006 -0.0048337 -0.0045481 0.004614 -0.00072972 0.0046563 -0.0069743 0.0087563 -0.0083877 0.0044102 -0.0077784 0.0058859 -0.0070331 0.0082158 0.0080429 0.003352 -0.0015389 
what 0.0037652 -0.0074789 0.00052838 -0.0064005 0.0090251 -0.00021421 -0.00064661 -0.007954 0.0089742 0.0044468 -0.0019416 -0.0057862 0.0036393 0.007472 -0.0030566 -0.0037553 -0.0074684 -0.0037916 -0.0027905 0.0051217 -0.00094609 0.005401 -0.0064885 0.00086879 -0.0052911 -0.00080533 0.0027615 0.00013842 -0.0041744 0.0085605 -0.0039919 0.0038498 0.0023497 -0.0018911 -0.0038468 0.004651 -0.0020101 0.00083477 -0.0077094 -0.0037569 0.0083061 0.0094922 -0.0022405 0.0041281 -0.0092685 0.0049777 -0.0066105 -0.0068076 0.0054944 -0.0090415 0.0054316 -0.0096069 0.0042561 0.0015367 0.0039932 -0.0095102 -0.0043891 0.0020938 0.0088906 0.0038005 0.0066651 0.0075817 0.0028927 0.0046881 0.0031397 0.0046272 0.0026615 -0.008043 0.0079121 0.0069703 0.0081999 0.0019304 0.0092359 0.0046437 -0.0097261 0.0027644 -0.0057377 0.0067328 0.0041519 0.0083874 -0.00034887 -0.0097521 0.0038586 0.0015457 -0.0030965 -0.0058234 -0.0088337 0.0021582 6.5322e-05 -8.5044e-05 0.0081191 0.0069501 -0.0090946 -0.0042072 -0.0042568 -0.0032529 -0.0012709 -0.0014923 0.0073807 0.003927 
