23 100
</s> -0.0084757 0.0079722 -0.0065615 -0.0029304 0.0051808 0.00077526 0.0060469 0.00054255 0.010928 0.010634 -0.0016861 0.002624 0.0094063 0.0072617 -0.0046061 -0.0014817 7.5233e-05 0.00557 0.00074037 -0.0081449 -0.00090771 0.0072683 0.005925 -0.0063457 0.0061294 -0.006149 0.0016171 -0.0040095 -0.0023512 0.010168 -0.0072357 -0.0032286 -0.009046 -0.0071762 -0.0096022 -0.0011624 0.0032833 -0.0097456 -0.0014773 -0.0062334 0.0096746 0.0074594 0.00397 0.0017019 -0.0053308 0.0018682 -0.0040073 -0.0055139 -0.0085702 0.0027941 -0.0074411 0.0090986 -0.0096324 0.0046596 -0.00042848 -0.0064967 0.0019547 0.0018936 0.0038988 0.0039017 -0.007651 0.0055981 0.0066712 0.0051559 -0.0042712 0.0004826 -0.008156 0.0051897 0.0094035 0.0065649 -0.0098812 0.00041989 -0.003467 0.00089683 -0.00021647 -0.0041049 0.0093666 0.010162 -0.0016356 -0.0042764 -0.0097029 0.0066578 0.0098243 -0.0090638 -0.0051769 -0.0083545 0.00041728 0.00015919 -0.0032259 -0.0036241 0.0098167 0.0053668 0.0098883 -0.0097149 0.00088053 -0.0086261 0.006284 0.0099441 -0.0050142 -0.001794 
is 0.0022313 0.0050065 0.0083918 -0.0098051 0.0068714 0.0079593 -0.0068034 0.0014749 -0.0030393 -0.001524 -0.0008896 -0.0067107 -0.0047682 0.0020974 -0.0064618 -0.0070984 0.0033486 0.0058876 -0.0070026 -0.00052313 -0.0046641 0.010014 0.0041815 0.0068431 -0.0084203 -0.0060664 -0.0099958 -0.0015226 -0.0025702 -0.0072354 -0.0050778 -0.00047889 0.0036602 -0.0060456 -0.0062731 -0.0022628 -0.0074136 0.0038679 -0.00022631 -0.0025635 -0.01017 0.0094531 -0.0050844 0.0031243 0.0086054 0.0019778 0.0084681 -0.003737 -0.0040912 0.0036166 -0.0011711 -0.0018981 0.0021341 0.0051401 -0.0088496 0.003253 -0.0096786 0.00043671 0.0087854 -0.0022546 -0.00062394 0.0037531 0.0057635 0.0080469 0.0041926 -0.0038372 -0.0075635 -0.0055189 -0.0054691 -0.0054632 0.0016757 0.0051787 0.0062131 -0.0072819 -0.0024523 -0.0026872 -0.0041397 0.0032144 0.0062346 0.0055754 0.00032597 -0.0055379 0.0027536 0.0028883 0.0048484 0.0034553 -0.0022084 -0.010114 -0.0045444 0.0074498 0.0030383 0.0026167 0.0029152 0.0017637 0.0090212 0.0024174 -0.0007701 0.0025207 -0.0066172 -0.0072671 
it 0.0069778 -0.0080925 -0.001053 -0.0043943 0.00074966 -0.0076643 -0.0089871 -0.0092589 0.010658 0.010509 -0.010164 -0.002973 -0.0016778 -0.0060261 -0.0035525 0.0048528 0.0024179 -0.0029925 -0.0078602 0.0033252 0.0075956 -0.0062459 -0.0059592 0.0025364 -0.00012715 -0.0010945 0.0050656 -0.0098823 -0.0090686 0.0023895 -0.008734 0.0081941 -0.0068066 -0.0025962 0.0047724 0.00075225 0.0058092 -0.00091504 0.010595 0.0099093 -0.0018035 0.0031878 0.0096424 0.0072809 -0.0044736 -0.0015788 0.0010082 0.0050374 0.00037475 -0.0080377 -0.0018495 0.0070149 0.0051093 -0.005994 0.0059589 -0.0071326 0.0019086 -0.0040447 -0.0016352 0.010423 -0.0078863 -0.0027692 -0.0083266 -0.0063303 -0.01 -0.0010266 0.0024416 -0.0093069 -0.0012688 -0.0062174 0.0097718 0.0077896 0.0042243 0.0015998 -0.0051924 0.0016761 -0.0049024 -0.0038766 -0.0086486 0.0023653 -0.0076699 0.0094785 -0.0091436 0.0047848 -0.00051916 -0.0059959 0.001225 0.0016602 0.0042022 0.0035336 -0.006315 0.0055059 0.0073178 0.0045897 -0.004123 0.00085282 -0.0071108 0.0062296 0.0086318 0.0057999 
name -0.0098134 0.00014827 -0.0040063 0.0012572 4.1284e-05 -0.0037548 0.0096218 0.0093371 -0.0011304 -0.0040468 -0.0089013 0.006016 0.0096441 -0.0090134 -0.0052111 -0.0079238 0.00069079 0.00037843 -0.0034258 -0.0036316 0.0095478 0.0046747 0.0090205 -0.009 0.0014403 -0.0088067 0.0061554 0.0095891 -0.0054464 -0.0019593 0.0025096 0.0051618 0.0083887 -0.0091698 0.0067161 0.0081298 -0.0065388 0.0014668 -0.0035109 -0.0021765 -0.00072056 -0.0064155 -0.0049922 0.0022039 -0.0060804 -0.0071935 0.0034273 0.0061054 -0.0068005 -0.00053325 -0.0048209 0.0097685 0.0039655 0.0069938 -0.0086278 -0.0060494 -0.0099443 -0.0012631 -0.0022532 -0.0074104 -0.0048564 -0.00084641 0.0039401 -0.0058318 -0.0063452 -0.0021282 -0.0070557 0.0043889 -0.00068907 -0.0028131 -0.0099533 0.0094064 -0.0051716 0.0031345 0.0088702 0.0019008 0.0080634 -0.0034467 -0.0038423 0.0035429 -0.00086376 -0.0018992 0.0023926 0.0049236 -0.0090532 0.0035896 -0.0096587 0.00068871 0.0087672 -0.0024677 -0.00016582 0.0034101 0.005629 0.0079932 0.0045549 -0.0035929 -0.0071214 -0.0053423 -0.0057591 -0.0057129 
are 0.00147 0.0050062 0.0056961 -0.0077882 -0.0022064 -0.0027135 -0.0041324 0.0030349 0.0069012 0.0062818 0.0003319 -0.0061157 0.002743 0.00276 0.0044337 0.0037325 -0.0020388 -0.0099698 -0.0048347 0.0072746 0.0030735 0.0026876 0.0027101 0.0017267 0.0095636 0.0023841 -0.00068405 0.0022283 -0.0071503 -0.0070212 0.0071508 -0.0079279 -0.0012195 -0.0037735 0.00023958 -0.0075437 -0.0087745 -0.0098777 0.0099742 0.0093458 -0.010036 -0.0024081 -0.0017329 -0.0059602 -0.0030378 0.004681 0.0028452 -0.0032021 -0.0078601 0.0032547 0.0068211 -0.0065347 -0.0066236 0.0027765 -0.00028324 -0.0017282 0.0051937 -0.0095694 -0.0083216 0.0024454 -0.0071011 0.0059465 -0.0023744 0.0059965 -0.00056772 -0.0077302 0.0018572 -0.0098442 0.010205 0.0088906 0.0070956 -0.0037153 0.008793 0.0042287 0.001647 0.006426 -0.0095448 0.0019395 -0.0084421 -0.006373 0.006947 0.0040984 0.00098778 -0.0023114 0.001231 -0.0029097 -0.0069807 0.002335 0.0066097 0.0097849 -0.0033346 0.0036626 -0.006522 -0.0031934 -0.0087474 0.0087851 -0.0031049 -0.0071324 0.0057785 -0.0033964 
why 0.0098434 0.0049949 -0.0032168 -0.0067129 0.00022998 -0.0063057 0.00091577 0.0010004 -0.0062596 -0.0048029 -0.0041645 0.0080866 -0.0083474 -0.00054268 0.0088069 -0.0010856 -0.0073147 -0.006011 -0.0020423 -0.0037569 -0.0032567 0.00019231 0.0031012 -5.808e-05 0.0030879 -0.0090283 -0.0042992 0.0016851 0.006725 0.0019624 -0.0097818 -0.009869 0.0016918 -0.0077792 -0.01015 0.0024786 0.0095897 0.0088437 0.0080216 0.0018931 -0.007664 0.002127 0.0094868 -0.0081858 -0.00052838 -0.0059768 -0.0089042 -0.0094487 0.0033229 0.0028739 0.0093641 -0.00063076 0.0080523 -0.0080474 -0.0072286 -0.007772 0.0023871 0.0093688 -0.0010854 0.0062895 -0.0052335 0.00020613 0.0068485 -0.0085732 0.0033592 0.0063183 -0.0030487 -0.0072962 0.0031709 0.0060465 0.0088027 -0.0029663 0.0001329 -0.0055982 -0.0020972 -0.0046462 -0.0031343 0.0022956 -0.0038324 0.0089933 0.0002241 0.01018 -0.0018211 0.0038547 -0.0075948 -0.0024347 -0.0099661 0.0077976 0.005661 -0.0047831 0.00021438 0.0086626 -0.0019811 -0.0017362 -0.0028136 0.0057049 -0.0043538 -0.0013629 0.0090155 0.0045726 
green -0.010125 0.0088653 -0.00041005 -0.004079 0.007709 -0.00632 0.0060661 0.003332 0.0025681 -0.0024401 0.0079704 0.006181 -0.0051798 -0.00022272 -0.0083397 -0.0028924 -0.0093185 -0.0086665 0.0074329 0.0051934 0.0099743 -0.0028841 0.0014963 0.0057533 -0.00084743 0.0030337 -0.0041126 -0.0006113 -0.001778 -0.0013104 -0.0070325 0.00022756 0.0014235 -0.004869 0.0051891 0.0047163 0.0020414 -0.0046977 0.0031439 0.00158 -0.0091579 -0.0016464 -0.0044639 -0.0043341 -0.00056768 -0.0027373 0.0062938 -0.0099742 0.00031709 0.0045737 -0.0044654 -0.0049663 -0.0050535 -0.0064555 0.0087775 -0.0056779 0.0089744 -0.0052749 -0.0036014 -0.0040699 0.0041562 -0.0059588 0.008186 0.0030498 -0.0097475 -0.0047566 -0.0075868 -0.0090726 0.009758 0.0085024 -0.0099985 0.0053622 0.0065231 -0.0020941 0.0041158 -0.0006533 -0.0050611 0.0045278 -0.0055515 -0.0037478 0.0037906 -0.002972 -0.0028639 -0.0046332 0.009301 0.0070711 0.00014333 -0.0090058 -0.0066448 -0.0056397 -0.0048791 0.0036735 0.0016733 -0.0063991 -0.0055632 0.0036798 -0.0013993 0.00084566 0.0098718 0.0080464 
Demo -0.0044753 0.0091636 0.0077514 0.001572 0.0076004 -0.0050923 0.00091337 -0.0025972 0.0025808 -0.0044784 -0.0040531 0.00071806 -0.0036407 0.0015035 -0.0031763 0.00083986 0.0047365 0.0088348 -0.0053193 0.0095693 -0.00014336 -0.0099486 -0.0054706 0.00049235 -0.0078065 -0.0019707 -0.0095886 -0.005985 -0.0065771 -0.00015076 0.009532 0.0022942 -0.0095595 0.0053471 0.0053765 0.005636 0.0062633 0.0063191 -0.0043199 0.0079179 -0.00094359 0.006878 -0.0075493 -0.005883 -0.0020854 0.0033499 0.0043098 0.0063435 -0.0080767 0.009914 0.00045524 -0.0049748 -0.0004923 -0.0048011 0.009118 0.0020564 -0.0012002 -0.0024744 0.004737 -0.00244 -0.0093161 0.00052641 0.0077309 0.0036076 0.00023777 0.0085949 0.0090478 0.0079457 -0.0031889 0.0081629 -0.0066494 -0.0018903 0.0090087 -0.0069052 0.0044412 -0.0037124 0.0021001 0.0012074 0.0098659 0.0090847 0.0087853 -0.0060093 0.0072245 -0.0070192 0.0043718 -0.0063114 -0.0012938 0.0087662 0.0035434 -0.0056591 0.0071226 -0.0048303 0.0048974 -0.0077572 -0.00013812 0.0041836 0.00056683 0.0039388 0.0096925 -0.0063411 
AI -0.0021652 0.00097982 0.0055094 0.0067257 0.001749 -0.0014934 -0.0098196 -0.0018743 -0.00072179 -0.0018105 0.005355 0.0096611 -0.0080858 0.00083297 -0.0058354 0.0014664 -0.0095232 -0.0036339 -0.0066616 -0.0018296 0.0049752 -0.002356 -0.0081404 0.0024323 0.00089118 -0.006352 -0.0014876 -0.0070481 -0.0015769 -0.0083715 -0.0098977 0.0083824 0.0046372 0.0093416 0.0064877 0.0058287 0.0041916 0.0099821 0.0081669 -0.0095116 -0.0030329 -0.0055118 0.0069928 -0.0053181 -0.0071745 -0.0094403 -0.0088874 0.0021498 0.0063337 -0.0072845 -0.00042526 -0.0095194 -0.002936 0.003634 -0.0063978 0.0093942 -0.0013392 0.0041988 0.0027006 0.0028274 0.00481 -0.0049078 -0.0025906 -0.0019812 -0.0071853 -0.0075931 0.0083644 0.0087663 -0.00074206 -0.0030807 0.001441 0.0025442 0.0080216 0.0084051 -0.0056102 -0.0091731 -0.0060234 -0.0096518 0.0058383 0.0018605 0.0087659 0.0073482 0.0075695 0.0053867 0.0080099 0.0069657 -0.0018947 0.007276 -0.00047844 -0.0014915 0.0018805 -0.0042968 -0.002809 0.0095981 0.00088888 -0.002016 -0.0058079 -0.0082962 0.0090145 0.0075067 
Your -0.0099173 -0.0072499 -0.0055963 0.002151 -0.0086708 -0.005892 0.0075328 -0.008577 -0.0030488 0.0095303 0.0011716 0.00041258 0.00077747 0.0080116 -0.0011839 -0.0041629 -0.0047721 -0.008277 -0.0051157 0.0065122 -0.0031761 0.0012894 0.0051314 0.0018616 0.0094365 -0.0051844 -0.00527 -0.0090502 0.0096427 0.0072542 0.0041678 0.0022957 0.007004 -0.0012762 -0.0064023 0.0032248 -0.0088484 -0.006727 -0.0065338 -0.002545 0.0045608 -0.0024595 -0.0082778 0.0053603 -0.0075859 0.004505 -0.0036479 -0.0048001 0.003002 0.0094173 0.0031499 -0.0032766 -0.0038899 0.003975 -0.007041 0.0074965 0.0038756 -0.0046959 0.0011678 0.0031291 0.0093837 -0.00042563 0.0038075 -0.002971 -0.0096114 -0.0025625 -0.0081693 -0.0082832 -0.0024283 0.00055654 0.00208 0.0059036 -0.0066117 0.0088381 0.0072928 0.0078088 -0.004269 -0.0017114 0.0059073 0.0032013 0.004006 -0.0099949 -0.0039992 -0.0097397 -0.0044565 -0.007358 0.0018129 -0.0065747 0.0029964 -0.0064908 -0.0092675 -0.0092995 -0.0064144 -0.0051532 -0.0096389 -0.0052337 0.0086136 0.0070883 0.0058867 -0.0057342 
going -0.0055107 -0.0058868 0.0088215 -0.0058884 0.0092421 -0.0015361 -0.0072839 -0.0083887 -0.0037055 -0.0046917 0.0082583 0.0088159 0.0063091 -0.0061156 -0.0041547 -0.005182 -0.0050304 0.0083705 0.0080841 0.0025318 -0.00046546 -0.0097341 0.0032519 -0.0070824 -0.0036987 0.002322 0.0040702 -0.00472 -0.0036993 0.0015335 0.0071756 0.0047332 -0.0093981 -0.0010621 0.0057961 0.0013577 0.0035596 -0.0058025 0.0024428 0.0077683 -0.0096374 0.0095861 0.0059013 -0.0021483 -0.004392 0.0054155 -0.0094015 0.0052321 0.0012217 0.00083197 0.010023 0.0069285 0.0059941 0.0066008 0.004643 0.0016519 0.0013052 0.0072572 0.0079111 -0.0011124 -0.0099461 0.0076916 0.0094248 0.0023623 0.0052525 -0.0023558 0.002444 -0.0034231 -0.0058079 0.003944 0.0060284 0.0026891 -0.00052848 0.0096524 -0.0062077 0.0041575 -0.0085382 -0.0073157 0.0050345 0.00029136 0.0095067 0.0040266 -0.0073704 0.0015928 0.0081982 -0.0042971 0.001663 0.0089926 0.0069855 0.0073231 -0.0037505 -0.0098943 -0.0068662 0.00079166 0.00046816 -0.00010783 -0.0056841 0.0015423 -0.0042472 -0.0074197 
how -0.0080569 0.0066925 0.00083867 0.001192 0.0091735 0.0045163 0.0018848 -0.0095344 -0.0090757 -0.00099066 0.0015657 -4.0699e-05 0.0001025 -0.0029078 0.0073627 -0.00081259 0.0075018 -0.00028306 0.0027216 0.0014219 -0.00078833 -0.0023561 0.00631 -0.003942 -0.0089961 0.0007226 -0.0044294 -0.0077 0.0087301 0.0066639 -0.0098272 0.00042688 0.0024611 0.0061716 -0.0014304 0.0088263 2.9435e-05 -0.0014061 -0.00065982 0.0028894 -0.001882 0.0039215 0.0043856 0.0007565 0.0084767 0.0045763 -0.0097334 -0.0076254 -0.0033838 -0.001379 -0.0014119 -0.00082173 0.009092 0.0098531 0.0044133 0.0061395 -0.0091351 0.0011764 0.00957 0.0066112 -0.0073659 -0.0047772 0.0061703 -0.0041813 -0.0005609 -0.0085919 0.0016247 0.0090328 0.0042959 -0.00072481 -0.0067285 -0.0055408 0.0072918 0.0092778 0.0080414 0.0082089 0.0079201 0.0013235 -0.008821 0.0092783 0.0065141 0.0034513 -0.0024836 0.0075507 -0.0062413 -0.0032768 -0.0025447 -0.0033117 0.0090099 0.0066227 0.0090758 -0.0030557 -0.0028198 0.0088872 -0.0044668 0.0093127 -0.0028739 -0.0029935 -0.0004684 -0.0067871 
when 0.0052012 0.0049699 -0.0058174 0.0038609 -0.0036527 -0.0077083 0.0074282 -0.0096775 -0.00032052 -0.003825 0.0075948 0.0053052 -0.007535 0.0054465 0.002101 0.0032861 0.0048544 0.0094512 0.0013835 0.0095416 -0.0092411 0.00092981 -0.00057087 0.006079 0.00036069 0.00111 0.0084828 0.006678 -0.0050658 0.0003133 -0.0042922 -0.010005 0.0086098 -0.0047616 -0.0060562 0.00050018 0.0035815 0.0022898 0.002824 0.0016706 0.0080637 0.0034898 0.0053197 -0.0050883 0.0074067 -0.0039202 -0.0090642 0.0082049 -0.0074252 -0.0095261 -0.0081679 0.0055427 0.0015966 -0.0065039 -0.0069981 0.00053086 0.007727 0.0067806 0.002758 0.0093791 -0.0032809 0.0082915 -0.0044067 -0.0090327 0.0099215 0.0042662 -0.0028273 -0.0097225 0.0055399 -0.0029881 -0.0046098 0.0093779 -0.00034689 -0.0052917 -0.0030437 0.0093883 -0.0091667 -0.0062274 0.0091552 0.003508 -0.0050504 -0.0041173 -0.00016254 -0.0095273 0.0083527 0.0096442 0.0044779 0.0016783 -0.0028835 0.0061763 -0.010134 0.0071486 -0.0060059 -0.0046381 0.0041798 0.0096209 0.00052933 0.0030962 0.00024556 -0.0024404 
blue -0.0051959 -0.0090931 -0.0082971 0.0041351 -0.0051051 -0.0025752 -0.0082687 0.0035266 0.0043055 0.0084373 -0.00081792 -0.002633 0.0085123 -0.00059842 0.0024207 0.0022177 0.0044704 -0.0063106 -0.008915 -0.0083659 0.0081291 0.0054112 0.0092098 0.0033215 0.008111 0.0075131 0.00051937 -0.0056601 -0.0080421 0.0083698 0.0021946 -0.0089447 -0.0068212 -0.0063166 0.0038196 -0.0022125 0.0097627 -0.0098645 -0.0034074 -0.0033028 -0.0057397 -0.0075262 -0.0071907 0.009032 0.0064846 -0.0083974 -0.0028123 -0.0082203 0.0056223 0.0042688 -0.0037624 -0.00023793 -0.0047038 0.0025404 0.0015685 0.0029882 -0.0027641 -0.0071735 0.0084125 0.0061387 -0.010334 0.0081655 -0.0093845 -0.0098659 0.0052305 0.0033414 -0.0079556 0.0053764 0.002203 -0.0037554 -0.0048489 0.0075356 0.0083208 -0.0067886 -0.0021411 -0.0069213 0.0052794 -0.0067885 -0.0020669 -0.0093686 -0.00018923 -0.002864 -0.0072795 -0.0022195 -0.00067718 -0.0029793 0.0071172 -0.008775 0.0094575 0.0060328 0.0011718 0.0086018 0.0057541 -0.0073665 0.0051006 -0.00017212 -0.0081652 0.0049649 -0.0045104 0.0012419 
be 0.0016967 -0.008605 0.002614 -0.0072924 0.0038044 -0.0084177 -0.00059153 0.0077549 -7.3712e-05 0.0097095 0.0096217 -0.010026 -0.00076032 -0.0090237 -0.0058152 0.0061561 -0.0091598 -0.0020245 -0.0033334 0.0099316 0.0092079 -0.0053937 -0.0090953 0.00050235 0.00066722 0.0013236 0.0026736 0.0023177 0.0012017 0.0059978 0.0079092 0.0040028 -0.0051114 -0.0020626 0.0057846 -0.0035432 -0.0015998 0.0019753 -0.0059323 0.010069 -0.0093215 0.00021534 0.0091959 0.00044689 0.00812 -0.0060376 0.0080662 0.0047934 -0.00075335 0.005345 -0.0091344 -0.0087097 0.0053459 -0.0028441 -0.0093667 0.0068251 0.0081706 0.0056079 0.0038853 0.0066904 -0.0037906 0.0064518 0.0080991 -0.0038354 -0.0016104 0.0024404 -0.0063017 -0.0077336 0.010089 0.008317 0.0072271 -0.001571 0.0047732 -0.0042185 -0.0014606 -0.0027495 0.007275 0.0078204 -0.0031724 -0.0014062 0.0038924 0.00068937 -0.00012374 -0.0056014 0.0097704 -0.0017889 -0.0089118 -0.0021666 0.0094292 -0.0026122 0.0057919 -0.0077658 0.0012701 0.0029409 -0.0066021 0.0070256 -0.0096311 0.0064107 0.0088843 0.0065777 
should 0.000513 0.009281 -0.0062762 -0.0086333 -0.0015138 -0.0071645 -0.0091109 0.0028175 -0.0027583 0.0069117 -0.00014124 0.0051589 -0.0060998 -0.0051438 -0.0084198 -0.0026066 0.0070422 -0.0041507 0.0066671 -0.0065099 -0.0096514 0.0067827 -0.000702 0.0084912 0.0028896 0.001709 -0.0014699 0.0096438 0.0061753 -0.0088613 0.0037306 -0.00077685 0.0039727 -0.00093268 -0.0043936 -0.0091235 -0.0079942 -0.006412 0.0028883 -0.0043275 0.0089175 -0.0088739 0.0043085 -0.0026828 -0.0029117 0.0086379 0.0077882 -0.0018601 -0.0048263 -0.0041204 -0.0008822 0.00042187 0.0047028 0.0059783 -0.0042128 -0.0055509 0.0068038 0.0072491 0.008779 0.0042033 -0.0076099 -0.0046793 0.0061248 0.0067851 -0.0017132 -0.008481 -0.0025486 -0.0094522 0.0020339 -0.0061314 0.0071882 0.0051441 0.0054634 0.00059327 0.0058155 0.0038047 0.0060732 0.00484 0.0087838 0.006929 -0.0065919 0.0017563 0.0044635 0.0091093 -0.0081756 0.005812 -0.0016611 -0.0066366 0.0080732 0.0050833 -0.0097124 -0.0042252 -0.00094121 -0.0062086 -0.0074418 -0.0017715 0.0050736 -0.0069947 0.0042304 0.0092592 
red -0.0078642 -0.0091931 -0.0085388 0.0057048 0.0077518 0.0015434 0.00041743 -0.006411 0.00035952 0.0036242 0.0018838 -0.0053778 -0.0033331 0.0057381 -0.0061767 0.008512 0.0032378 0.001574 0.0092051 0.0054307 0.0099765 0.0015286 0.0048117 -0.0098916 -0.0087274 0.0082564 0.0021645 0.00045457 0.0058586 0.00318 -0.009674 0.0084138 -0.0020116 -0.003395 -0.00080089 -0.0048774 -0.0091136 -0.0066565 0.0079924 0.0092568 -0.0072147 -0.0031321 0.00087876 -0.0055077 -0.0049612 -0.0044826 0.0047694 -0.0010351 0.00429 -0.0067894 0.0084151 -0.0080339 0.0040134 -0.0077521 0.0058582 -0.0073663 0.0083403 0.0076919 0.0034364 -0.0011713 -0.0093644 0.0030682 -0.0039838 -0.0070373 -0.0052409 0.0010194 -0.010477 -0.0056649 0.0082685 0.0033091 -0.0058196 -0.004569 0.0058452 -0.0047166 -0.0054854 0.0045006 -0.0094692 0.001312 -0.002551 0.00099423 -0.0090573 0.0015319 -0.0086485 0.0083904 0.00070845 -0.0068061 0.0074985 0.0048279 -0.0071208 -0.0074663 -0.0020888 0.002503 0.0080724 -0.0032157 0.0033243 0.0047464 0.0049256 0.0031405 -0.0035706 -0.0055039 
you 0.0067629 -0.0071069 0.0033924 -0.0033246 -0.0097437 -0.0016519 0.0035398 0.0071568 0.0020219 0.0074357 -0.0033545 -0.0045425 -0.0016736 -0.004894 0.0060472 -0.0034239 -0.0054075 0.0092961 -0.0041486 0.0053113 -0.0046809 -0.0042566 0.0061787 -0.0045171 -0.0024216 0.0099541 0.0037861 0.0021581 -0.0084295 -0.0039306 0.0056424 0.0092718 0.0076407 0.0084226 -0.00031571 -0.0033757 -0.0089989 -0.0089382 0.0047827 0.0092605 0.0047592 -0.005418 0.0079495 -0.00095682 -0.0046089 0.0052636 0.010262 -0.010066 -0.0039602 0.0006585 -0.01019 0.0061538 0.0038687 0.001561 0.0017453 -0.0068204 -0.0032167 -0.0037012 -0.0073871 0.004786 -0.0074744 0.0074345 -0.0034199 -0.0057493 -0.0036936 0.0045425 -0.007829 0.0046006 0.0017604 0.0030807 -0.0011556 0.0047898 7.9875e-05 -0.0050175 -0.0083346 -0.0050273 -0.0097366 0.0034618 -0.00056676 5.0041e-06 -0.0093715 -0.0045046 0.00057632 0.0087017 0.0033551 0.0021162 -0.0073835 0.00010873 0.0052482 -0.00037023 0.0034322 -0.00054078 -0.00094434 -0.00074017 -0.0067215 0.0053061 0.0059435 -0.0088651 0.0069659 -0.0090042 
here 0.00023213 -0.0026051 -0.0023647 -0.0077467 0.0054321 -0.0038693 -0.0046043 -0.002982 -0.0076803 0.010092 -0.0090626 0.00339 -0.006426 -0.004418 0.0018517 0.0087968 -0.0002063 -0.0059346 0.0076903 0.0041231 -0.0098272 0.0032725 0.0068917 -0.001967 0.00010259 -0.0072643 -0.0026215 -0.00019269 0.0062896 0.00256 0.0093616 -0.0057294 -0.0049942 -0.0014091 -0.0028127 -0.009615 -0.0044632 -0.0059414 0.0015864 -0.0049955 0.0037001 -0.0073075 0.00034764 -0.0063954 0.0088996 -0.00041753 -0.00045916 -0.0082486 0.0091868 0.0046941 -0.0018505 -0.0055815 0.0036579 0.0074598 -0.0029551 -0.0037473 -0.0077602 -0.0036647 -0.0029167 0.005068 -0.00095409 0.0053504 -0.0063058 0.00076944 -0.0051266 -0.001044 0.0024486 0.00017278 -0.0040554 0.0088778 -0.0036154 0.0035457 0.002263 -0.0020177 -0.0040119 0.0046345 -0.0022376 0.00081383 -0.0076057 -0.0034802 0.0084791 0.0095699 -0.0021919 0.0039964 -0.0092811 0.0048932 -0.0066801 -0.0067957 0.0054317 -0.0087153 -0.0056674 0.0019373 -0.0029877 0.0077149 0.0043745 0.0056409 0.0013198 0.0068154 0.0017138 -0.0037284 
we -0.0021719 -0.0097919 0.0019921 -0.0097115 0.0011314 -0.0048061 -0.006526 -0.0031113 -0.0039537 -0.002817 -0.0086294 -0.0085101 -0.0027306 -0.00044136 -0.0094442 -0.00033813 0.0072321 0.0042548 0.0017725 -0.0015128 -0.001099 -0.0015788 0.0074706 -0.0019007 0.0085342 0.0066535 -0.0045601 -0.0066683 0.0027254 0.00088151 0.0064675 0.0076354 0.0024607 -0.002167 0.0015876 -0.00025577 -0.0001694 0.006691 0.0061985 -0.0050776 0.0091045 -0.0092551 -0.0034645 -0.0042241 0.0028565 -0.0054777 -0.0018179 0.00060503 0.0025037 -0.0068407 0.0043294 -0.00073367 -0.008925 0.0078294 0.0014353 -0.0074509 -0.0030344 -0.0017392 -0.005066 0.0054832 -0.0091417 0.0091485 0.0018224 0.0056324 0.0011147 0.00064258 -0.0088453 0.00028565 -0.0076762 -0.0082232 0.01001 0.0038028 0.0017804 0.0031392 -0.00082104 -0.0070176 -0.0072768 0.0045961 0.0057221 0.0079224 -0.0099776 0.0057375 0.008946 -0.0053214 0.00035705 0.0054184 -0.0055125 0.0029779 -0.0012961 -0.0018832 0.0020551 -0.004463 0.0090662 0.0092261 -0.0024903 -0.001802 -0.0071845 -0.0043955 0.00012831 -0.009575 
where 0.0088134 -0.0019109 -0.0045245 -0.0072177 0.0064225 0.001428 -0.0068968 0.0080175 0.003949 0.0045626 0.0023735 -0.009668 -0.003588 -0.0086783 -0.009239 0.0098272 -0.001257 -0.0068902 0.0016307 -0.004829 -0.0061914 0.0035798 -0.0084951 -0.0077399 0.008397 -0.0012417 -0.0062226 -0.0089597 -0.008015 0.0082836 -0.0069177 0.0099221 -0.0099524 0.0042488 0.0046224 0.0084831 0.0048948 0.0093839 -0.0045265 -0.0072973 0.0084587 0.0055009 0.0026518 0.0020568 -0.0077382 -0.0086765 0.0011829 -0.005355 0.0073624 0.0034201 -0.0096763 -0.0093462 -0.0052068 0.0022968 0.0069824 0.0074863 -0.010095 0.0070535 0.0087287 -0.0042747 0.0063691 -0.0021808 -0.001209 -0.008558 0.0068521 -0.0010358 -0.0095091 -0.0054293 0.0031129 0.0073548 0.0054385 -0.0095299 0.0041823 0.0016836 0.0038493 -0.0092503 -0.0043488 0.0022001 0.0091382 0.0040373 0.0066619 0.0077399 0.0032064 0.0044316 0.0028497 0.0046533 0.002551 -0.0079059 0.0080261 0.0069065 0.0078963 0.0021788 0.0092497 0.0046398 -0.0095994 0.0026739 -0.0058507 0.0066002 0.0041777 0.0085529 
your -0.00045722 -0.0097638 0.0037417 0.0013804 -0.003287 -0.0058495 -0.0087093 0.0020388 0.00013472 -0.00024913 0.0083079 0.0066702 -0.0089432 -0.0042395 -0.0041063 -0.0032289 -0.0010836 -0.00135 0.0072804 0.0038448 -0.0028016 0.00080768 -0.0023393 0.0023057 -0.0061764 -0.0099508 -0.0071747 -0.001185 -0.0043585 0.0096314 0.0013024 0.0052839 -0.0015274 0.0055728 0.0074578 0.0058629 -0.003459 -0.007286 -0.0057433 -0.0070438 -0.0082981 0.0017824 0.0031702 -0.0092333 0.00075575 0.005786 0.0068839 0.0036013 -0.0092202 0.0046378 0.00014593 -0.0057012 0.0070638 -0.00077505 -0.0068258 0.0088575 0.0062097 0.0038292 0.0093656 0.0071542 0.0060541 0.0023181 0.001628 -0.0010771 -0.006921 0.00094221 -0.0039048 0.0062511 -0.0094002 0.003147 0.0014907 0.0057897 -0.0051256 -0.0034135 -0.00048317 -0.0073742 0.0016526 -0.0079794 0.0090824 0.001031 -0.0063539 0.003023 -0.003631 -8.0331e-05 0.0053511 -0.0045364 -0.0095493 -0.0056898 -0.0019289 -0.0051303 -0.0039608 0.0089148 -0.0042158 0.0025895 0.0024738 0.0045333 -0.0085671 0.0091198 0.00013127 -0.0055894 
what -0.0051016 -0.006986 -0.0042676 0.0072003 0.0028061 0.0010065 -0.0044064 -0.0011505 -0.0048646 -0.0049113 -0.009981 0.0049348 -0.0063532 0.0077438 -0.00077276 -0.0026508 -0.0072988 0.0096391 0.0047408 -0.0084437 -0.0090695 0.0036383 0.0012869 0.0040007 -0.0014439 -0.0083214 -0.0067663 0.006234 -0.0011275 -0.001964 -0.0013391 -0.00835 -0.0088586 -0.0091218 0.00091025 0.0078763 -0.0038761 -0.0072662 0.0081473 0.0087582 -0.0059198 0.0054797 -0.0077944 -0.0059998 -0.0015134 -0.002778 0.0048337 0.0060632 -0.0018797 -0.0090929 0.004417 0.0076022 0.0041024 0.0051558 0.0030199 -0.0075246 0.0018393 -0.0087487 -0.0027174 0.0054815 0.0059958 0.0023906 0.0026632 -0.0038594 0.0039931 0.00077347 -0.0057076 0.0017806 -0.0014658 -0.0043502 0.0057642 0.0073902 -0.0082447 0.0086525 0.0025978 -0.0059729 0.0025285 -0.0046844 0.0070483 0.0025743 -0.0096104 -0.0016661 0.003052 0.0061955 -0.0059085 0.0022679 0.0025078 -0.0057979 -0.0089099 0.0088921 0.0034888 0.0011693 0.002374 0.0041253 -0.0035716 0.0076452 0.0056862 -0.0048096 0.004769 -0.0005642 
