24 100
</s> -0.0085793 0.0083421 -0.0063213 -0.0021752 0.0049393 0.00094956 0.0059072 0.00015326 0.010536 0.009833 -0.0016602 0.0033329 0.0094858 0.0068434 -0.0044003 -0.0016723 0.000102 0.0058067 0.00126 -0.0083314 -0.0012298 0.0071052 0.0055723 -0.0065308 0.0059487 -0.0065813 0.001761 -0.0038306 -0.0017387 0.010184 -0.0070123 -0.0029888 -0.0088815 -0.0067654 -0.0094875 -0.00071548 0.0030942 -0.0092728 -0.0020771 -0.006708 0.010046 0.0075743 0.0034187 0.0018339 -0.0051167 0.0018923 -0.0049325 -0.0047061 -0.0081385 0.0030783 -0.0077496 0.0089181 -0.0095556 0.0049981 -0.00094187 -0.005664 0.0017247 0.0022282 0.004027 0.0032477 -0.0070068 0.0052589 0.0069369 0.0050697 -0.0033226 0.00062374 -0.00693 0.0056525 0.0082209 0.0061834 -0.0098657 0.00011361 -0.0041635 0.00077091 -0.000322 -0.0042654 0.010063 0.009752 -0.0011261 -0.0038501 -0.0090175 0.0059354 0.010028 -0.0092783 -0.0054469 -0.0083145 0.00056111 -3.7196e-05 -0.0033834 -0.0032816 0.0095701 0.0048353 0.0094725 -0.0092168 0.001598 -0.008916 0.0064766 0.010024 -0.0060778 -0.0018636 
is 0.002448 0.0051819 0.008421 -0.0092348 0.0067445 0.0079451 -0.0068061 0.0011968 -0.0032147 -0.0020112 -0.00081487 -0.0064427 -0.0047112 0.0020381 -0.0063857 -0.0071904 0.0034827 0.0060952 -0.0068829 -0.00053898 -0.0048728 0.0098998 0.0040523 0.0070245 -0.0084482 -0.0063328 -0.0097105 -0.0012078 -0.0023489 -0.0072186 -0.0049668 -0.0004939 0.0039359 -0.0058031 -0.0065508 -0.0022548 -0.0075789 0.0041932 -0.00038692 -0.0026547 -0.0099834 0.0095352 -0.0052843 0.0031866 0.0087135 0.0018856 0.0080721 -0.0034065 -0.0038303 0.0037742 -0.001301 -0.0018826 0.002409 0.0050449 -0.0091342 0.0036198 -0.0094815 0.00065329 0.0087271 -0.0026451 -0.00021492 0.0037159 0.0057105 0.0078952 0.0046495 -0.0036334 -0.0070927 -0.0054074 -0.0057497 -0.0055715 0.0014366 0.0049265 0.0057278 -0.0076062 -0.0026909 -0.0027172 -0.0038451 0.0030784 0.006488 0.0056325 0.0005234 -0.0059243 0.0027803 0.0028187 0.0047517 0.0035679 -0.0021737 -0.010104 -0.0047297 0.0075435 0.0027337 0.0026101 0.0026202 0.001675 0.0093075 0.0023656 -0.00058251 0.0026097 -0.0070823 -0.0071994 
it 0.0073181 -0.0076542 -0.00082532 -0.0035872 0.00054776 -0.0076607 -0.0092775 -0.0097707 0.010403 0.0096973 -0.010192 -0.002393 -0.001528 -0.0062549 -0.0034885 0.0047322 0.0025176 -0.0027337 -0.0075158 0.0031038 0.0072405 -0.0064436 -0.006293 0.0025531 7.1716e-06 -0.0018134 0.0053565 -0.0095806 -0.0085894 0.0024944 0.0027781 0.007571 -0.0048684 0.0029563 -0.009152 -0.0074946 -0.0083016 0.0084457 0.0090394 0.0084415 -0.0082014 0.0081743 -0.0063958 -0.0018499 0.0046989 0.0011512 0.0059822 3.5152e-05 0.0098893 0.009961 -0.0022255 0.0030896 0.0091214 0.007571 -0.0044395 -0.0017198 0.00060231 0.0058939 0.0009934 -0.0084655 -0.0017018 0.0073521 0.0058395 -0.0061125 0.0058759 -0.0064819 0.0015697 -0.0040387 -0.0016482 0.010247 -0.0070421 -0.0034591 -0.0087012 -0.0071119 -0.0098733 -0.0011711 0.0038469 -0.008183 -0.0022105 -0.0066911 0.0097238 0.0073358 0.0039342 0.0015352 -0.0051309 0.0016511 -0.0049749 -0.0051845 -0.0081336 0.0032019 -0.0070567 0.0093084 -0.0087781 0.004439 -0.0006131 -0.0056321 0.0017044 0.0027295 0.0033266 0.003214 
name -0.0065323 0.0049541 0.0065143 0.0051096 -0.0036138 0.00071398 -0.0069944 0.0059229 0.0081253 0.0057574 -0.0098225 0.0001564 -0.0041609 0.0011822 0.00010662 -0.0038473 0.0096855 0.0093434 -0.0010444 -0.0038829 -0.0089319 0.0060357 0.0097149 -0.0089265 -0.0052783 -0.0078767 0.00066703 0.00046967 -0.0033851 -0.0037629 0.0096874 0.0047085 0.0092054 -0.0089793 0.0015901 -0.0087476 0.0063133 0.0096802 -0.0055239 -0.0018635 0.0023878 0.0049971 0.0083456 -0.0092865 0.0066312 0.0080547 -0.0064526 0.0013626 -0.0033465 -0.002162 -0.00062566 -0.0064026 -0.0048074 0.0021168 -0.0060298 -0.0071239 0.0033672 0.0060011 -0.0069506 -0.0005366 -0.0048452 0.0098244 0.0038567 0.0069417 -0.0086104 -0.0062108 -0.0098608 -0.0011656 -0.0022542 -0.0073336 -0.0049248 -0.0007994 0.0040313 -0.0058307 -0.0063675 -0.002071 -0.0072647 0.004268 -0.0004841 -0.0027782 -0.0099407 0.0094299 -0.0052779 0.003219 0.00887 0.0019783 0.0081444 -0.003271 -0.0038478 0.0035015 -0.0010001 -0.0018902 0.0023268 0.0048989 -0.0091175 0.0036163 -0.0097366 0.00056616 0.0088059 -0.0024399 
are -0.00031675 0.00382 0.0056453 0.0078164 0.0047906 -0.0036736 -0.0074398 -0.0054395 -0.0054349 -0.0054518 0.0014281 0.005255 0.0059571 -0.0074074 -0.0026339 -0.0026254 -0.0039777 0.003222 0.0065728 0.0055288 0.00065702 -0.0057885 0.002768 0.0026434 0.0049371 0.0033745 -0.0019463 -0.010041 -0.0047603 0.0074485 0.002702 0.0026683 0.0022811 0.0017178 0.0092216 0.0021616 -0.00089937 0.0022349 -0.0068296 -0.0072689 0.0075093 -0.0079201 -0.00086876 -0.0034372 0.00023516 -0.007384 -0.0089036 -0.0096098 0.0096413 0.0095254 -0.010254 -0.0023276 -0.0020587 -0.0058825 -0.0030586 0.0045602 0.0025223 -0.0027561 -0.0076903 0.0031606 0.0068471 -0.0063297 -0.006214 0.002789 -0.00023118 -0.0015207 0.0049981 -0.0095213 -0.0082324 0.0023871 0.0029047 0.0070916 -0.0044776 0.0028693 -0.0089361 -0.0074728 -0.0074439 0.0091342 0.0088093 0.0083694 -0.0066382 0.0057718 -0.0022026 0.0058847 -0.00039151 -0.0076951 0.0022011 -0.0096806 0.0099201 0.0090033 0.0071766 -0.0039167 0.0087383 0.0042086 0.0017073 0.0066313 -0.0094278 0.0018636 -0.0085987 -0.006403 
red 0.0071954 0.0040719 0.00090686 -0.0023717 0.0013239 -0.0029105 -0.0071376 0.0024176 0.0068556 0.0099501 -0.0035624 0.0034972 -0.0067764 -0.0031621 -0.0087719 0.0086918 -0.003102 -0.0072043 0.005773 -0.0034618 0.0097353 0.004866 -0.0030066 -0.0066548 0.00041369 -0.0065078 0.0010268 0.00073505 -0.0062083 -0.004531 -0.0040928 0.0081815 -0.0085268 -0.0006812 0.0083857 -0.0012456 -0.0074583 -0.0061149 -0.001952 -0.0034391 -0.0029013 0.00014407 0.0029916 0.00019482 0.0026563 -0.0087304 -0.0043285 0.0015649 0.0064858 0.002076 -0.010018 -0.0095703 0.0016799 -0.0074547 -0.0099836 0.002344 0.0094706 0.008646 0.007961 0.0020448 -0.0079924 0.0022404 0.0095442 -0.0079383 -0.00024667 -0.0058748 -0.0085849 -0.0092698 0.0032344 0.0029359 0.0090215 -0.00066799 0.0080399 -0.0083011 -0.0074245 -0.0078696 0.0026566 0.0094391 -0.00094832 0.0062741 -0.005323 0.00018133 0.0068738 -0.0086333 0.0030725 0.0059791 -0.0031448 -0.0075588 0.00318 0.0060792 0.0086236 -0.0025497 0.00057576 -0.0057221 -0.0021114 -0.0043415 -0.0031133 0.0023957 -0.0041318 0.0087993 
green 0.00018409 0.0099405 -0.0020413 0.0038334 -0.007119 -0.0024769 -0.009922 0.007435 0.0059171 -0.0043411 -0.0001194 0.0085217 -0.0019138 -0.0018576 -0.0029273 0.0057773 -0.0043656 -0.0012541 0.009054 0.0044096 -0.0098724 0.0089047 -0.00024581 -0.0039496 0.0077563 -0.0063228 0.0062789 0.0031879 0.0021367 -0.0028442 0.0078591 0.0065722 -0.0054484 -0.00025439 -0.0083032 -0.0031146 -0.0095456 -0.0088665 0.0076419 0.0051203 0.0097927 -0.0028642 0.0013273 0.0058274 -0.0010048 0.0028199 -0.0043505 -0.00061066 -0.0015387 -0.0011027 -0.0071639 0.00011123 0.0015146 -0.0045118 0.0050635 0.0048874 0.00231 -0.0041505 0.002936 0.0012066 -0.0092364 -0.0014612 -0.0044643 -0.0043935 -0.00026099 -0.0028447 0.0059893 -0.0098029 0.00056683 0.0047754 -0.0043164 -0.0050869 -0.0050386 -0.0066903 0.008349 -0.0056368 0.0088743 -0.0049485 -0.0036536 -0.0043097 0.0045674 -0.0061433 0.0083527 0.002959 -0.0095602 -0.0047489 -0.0073719 -0.0090207 0.0093691 0.0085956 -0.0098954 0.0052906 0.0064174 -0.0020693 0.0042475 -0.00061679 -0.0048471 0.0045485 -0.0056072 -0.0035871 
should 0.0040523 -0.0028297 -0.0028022 -0.0047433 0.0093424 0.0071088 -0.00013203 -0.0089948 -0.0063329 -0.0053835 -0.0040878 0.0042448 0.0012132 -0.0040803 -0.0074189 -0.0042983 -0.0050136 0.0079558 0.0075883 0.0066482 -0.0047797 0.0035668 0.0014537 -0.0062648 -0.0052254 0.0033819 -0.0013049 0.0005858 0.0096312 0.0081468 -0.0046019 0.0093978 0.0074548 0.0013885 0.0073979 -0.0052847 0.0005833 -0.0028657 0.0027742 -0.0044119 -0.00397 0.00085056 -0.0036568 0.0015841 -0.0032392 0.00084539 0.004572 0.0087128 -0.0052923 0.0098474 -0.00053118 -0.0098843 -0.0055363 0.00063378 -0.0079609 -0.0020167 -0.009423 -0.005895 -0.0065373 -0.00017334 0.0092026 0.0024359 -0.0094036 0.0052858 0.0054643 0.0054911 0.0062638 0.0060999 -0.0041904 0.0081895 -0.0010266 0.0068783 -0.0075288 -0.0061899 -0.0024023 0.0030623 0.0044753 0.0065297 -0.008107 0.0098927 0.0003441 -0.0048922 -0.00025342 -0.0049272 0.009005 0.0018357 -0.001327 -0.002692 0.0047578 -0.0020583 -0.0093631 0.00074103 0.0079666 0.0034576 0.00028554 0.0085573 0.009077 0.0081888 -0.003419 0.0081796 
be -0.006682 -0.0016413 0.0090339 -0.007026 0.004521 -0.0038611 0.0017959 0.0011323 0.010184 0.0093541 0.0085342 -0.0058132 0.0073626 -0.0071495 0.0040793 -0.0063415 -0.0013509 0.0088775 0.0036767 -0.0057084 0.0072611 -0.0046565 0.0050316 -0.0079558 -1.6177e-06 0.003977 0.00068061 0.00389 0.0096171 -0.0061757 -0.0022919 0.001214 0.0052128 0.0065422 0.0015465 -0.0016858 -0.01015 -0.0021428 -0.00052846 -0.0017441 0.0054381 0.0097936 -0.0081019 0.0009136 -0.0058983 0.001472 -0.0096877 -0.0037559 -0.0066346 -0.0015515 0.0045873 -0.0022917 -0.0082061 0.0025737 0.00073679 -0.006398 -0.001322 -0.0069581 -0.001537 -0.0083941 -0.010227 0.008524 0.0047931 0.0092803 0.0065755 0.0056838 0.0041921 0.0097629 0.0082964 -0.00924 -0.0031159 -0.0055115 0.0070132 -0.005625 -0.0074914 -0.0097279 -0.0087219 0.002336 0.0063033 -0.0073058 -0.0005364 -0.0094368 -0.0026971 0.003508 -0.0065108 0.0091735 -0.0014661 0.0039813 0.0027213 0.003209 0.004763 -0.0046932 -0.0023549 -0.0021313 -0.0071375 -0.0076307 0.0083936 0.0090094 -0.00097216 -0.0030639 
blue 0.0014083 0.0027931 0.0080467 0.0082843 -0.0055304 -0.0093218 -0.0063276 -0.009727 0.0061564 0.0021298 0.0085147 0.0075443 0.0077077 0.0052564 0.0077174 0.0069356 -0.0019518 0.0073873 -0.00034516 -0.0015408 0.002019 -0.004123 -0.0026748 0.0093996 0.0010254 -0.0022225 -0.0056941 -0.008345 0.0089391 0.007672 -0.010044 -0.0070157 -0.0058929 0.0019675 -0.0088733 -0.0060844 0.0072027 -0.0088455 -0.0028554 0.0095967 0.0012546 0.00054508 0.00076136 0.0080922 -0.0012467 -0.0041574 -0.0049366 -0.008399 -0.0050887 0.0067903 0.0087079 0.0012695 0.006492 0.0092183 -0.0059179 -0.0015208 -0.0023172 0.0068471 0.0062674 0.0050109 -0.0034431 0.0015264 0.0054125 0.0018641 0.0096444 -0.0052604 -0.0052741 -0.009192 0.0096606 0.0075651 0.0039811 0.0021864 0.0068376 -0.0016563 -0.00681 0.0028815 -0.0086223 -0.0065617 -0.0064453 -0.002498 0.0045057 -0.0023876 -0.0079207 0.0052358 -0.0077086 0.00439 -0.003849 -0.0051191 0.0029647 0.0096633 0.0031861 -0.0030743 -0.0036716 0.0038244 -0.0069808 0.0073495 0.0040512 -0.0043423 0.00084978 0.0032007 
when 0.0093899 -0.00049481 0.0037607 -0.0029431 -0.0098238 -0.0025371 -0.0081164 -0.0083186 -0.0025374 0.00041466 0.0022565 0.0058908 -0.0067078 0.0089708 0.0074455 0.0078888 -0.0043731 -0.0017904 0.0058865 0.0032559 0.0039095 -0.010058 -0.0041192 -0.0098159 -0.0045534 -0.0073385 0.0018719 -0.0064616 0.0030421 -0.0065944 -0.0092365 -0.0093687 -0.0063337 -0.0051792 -0.009673 -0.0051775 0.0088806 0.0071855 0.0059218 -0.005799 -0.0055033 -0.0061171 0.0088666 -0.0059755 0.0092237 -0.0016807 -0.0072105 -0.0082566 -0.0036549 -0.004849 0.0084741 0.0089036 0.0063931 -0.0062209 -0.0040603 -0.0051351 -0.0050146 0.0083307 0.0080972 0.0025665 -0.00042716 -0.0098849 0.0031717 -0.007224 -0.0036644 0.0024126 0.0042015 -0.0045535 -0.0038079 0.0015275 0.0073034 0.0046774 -0.0095179 -0.0010643 0.0059491 0.0014008 0.003592 -0.0059648 0.0024822 0.0077345 -0.0096368 0.0096207 0.0058945 -0.0022051 -0.0044859 0.0053723 -0.009362 0.005409 0.001179 0.00067143 0.010029 0.0069943 0.0058681 0.0066053 0.0046244 0.0016116 0.0014619 0.0072039 0.0080348 -0.0010038 
how -0.0099748 0.0077168 0.0094796 0.0023769 0.0052441 -0.0022619 0.0023146 -0.0034522 -0.0057214 0.004009 0.0059827 0.0026325 -0.00056243 0.0095598 -0.0062326 0.0040445 -0.0085579 -0.0072669 0.0050153 0.00027972 0.0093888 0.0040474 -0.0073027 0.0016207 0.0081845 -0.0042149 0.0016486 0.0090679 0.0069058 0.0072498 -0.0036704 -0.0097773 -0.006757 0.0007493 0.00042889 -0.00012493 -0.0056842 0.0016143 -0.0041518 -0.0073401 -0.0081043 0.0067352 0.0006706 0.0012177 0.0091572 0.0044802 0.0020593 -0.009424 -0.008967 -0.00094197 0.0016077 -6.1134e-05 0.00012481 -0.0028241 0.0073608 -0.00074841 0.0075309 -0.00038741 0.0027068 0.0013498 -0.00074539 -0.0022506 0.0063041 -0.0039493 -0.0088512 0.00069858 -0.0044051 -0.0076119 0.0086753 0.0067399 -0.0099041 0.00034505 0.0024773 0.006109 -0.0015055 0.008834 2.4518e-05 -0.0014849 -0.00064598 0.0028136 -0.0017309 0.0038049 0.004402 0.00072785 0.0084519 0.0045392 -0.0096804 -0.0077081 -0.0034849 -0.0013829 0.0020769 -0.0016414 -0.0079548 0.0020887 -0.0042601 0.0013955 4.1556e-05 0.0056496 0.0049339 0.003471 
going -0.0014964 -0.00089081 0.0090408 0.0098354 0.0043793 0.0060766 -0.0090374 0.0011965 0.0094636 0.0066384 -0.0073949 -0.0047902 0.0061265 -0.0042019 -0.00061758 -0.008574 0.0014756 0.0089376 0.0043887 -0.00060085 -0.0067701 -0.0055199 0.0072469 0.0093121 0.0080517 0.0081983 0.0079437 0.0015064 -0.0088495 0.00924 0.0064677 0.0034822 -0.002354 0.0075266 -0.0062775 -0.0032674 -0.0026347 -0.0032993 0.0090122 0.0065767 0.0090256 -0.0029337 -0.0027863 0.0088229 -0.0044571 0.0093563 -0.0027212 -0.0029427 -0.00040216 -0.0067984 0.0051989 0.0048748 -0.0056975 0.0035195 -0.0034099 -0.0077315 0.0072169 -0.0096118 -0.00019657 -0.0035813 0.007419 0.0051564 -0.0075414 0.0053005 0.001905 0.0032617 0.0047705 0.0092883 0.0012445 0.0094821 -0.0091246 0.00099513 -0.00042238 0.0060232 0.00041795 0.0010637 0.0082651 0.0064176 -0.0051586 0.00032967 -0.0043237 -0.0098567 0.008398 -0.0048588 -0.005987 0.00050545 0.0034795 0.0021178 0.0029494 0.0017394 0.0077636 0.0035409 0.0052717 -0.0050391 0.0072857 -0.0039077 -0.0088656 0.0079092 -0.0074057 -0.0093696 
why -0.0083874 0.0055227 0.0014569 -0.0064405 -0.0071517 0.00043706 0.0081202 0.0070206 0.0028012 0.0095677 -0.0035221 0.0084607 -0.0042838 -0.0090833 0.0099489 0.0041837 -0.0031591 -0.010132 0.0056955 -0.0029716 -0.0045953 0.0096698 -0.00012136 -0.0053784 -0.0031 0.0095167 -0.0093652 -0.0059958 0.0091691 0.0036897 -0.0051104 -0.0040082 -0.00011618 -0.0095015 0.0085055 0.0097747 0.0045296 0.0014384 -0.0028386 0.0062721 -0.010031 0.0072679 -0.0058185 -0.0046463 0.0039598 0.0098359 0.00045778 0.003357 0.000352 -0.0026769 -0.005103 -0.0092901 -0.0084526 0.0045129 -0.0052021 -0.002423 -0.0082451 0.0034443 0.0038426 0.008052 -0.00079625 -0.0025413 0.0085229 -0.00063386 0.0026943 0.0022937 0.0046311 -0.0062112 -0.0089575 -0.0086827 0.0079687 0.0053548 0.0092415 0.003541 0.0083827 0.0075689 0.0005285 -0.0055905 -0.0079568 0.0083495 0.0024711 -0.0092982 -0.0067872 -0.0062293 0.0039765 -0.0021432 0.01033 -0.0093545 -0.0038319 -0.0039215 -0.005703 -0.0077446 -0.0075821 0.00905 0.0067884 -0.0086991 -0.0031501 -0.008179 0.0060361 0.0044166 
Your -0.0034927 -0.00038976 -0.0045448 0.0026018 0.0014229 0.003412 -0.0029656 -0.0069881 0.0082861 0.0057963 -0.0098226 0.0078841 -0.0094755 -0.0099214 0.0056226 0.0034447 -0.0074383 0.0057079 0.0017081 -0.0039154 -0.004807 0.0073396 0.008034 -0.0066029 -0.0020389 -0.0068654 0.0053834 -0.0070793 -0.0017853 -0.0092902 -0.0047715 -0.0045815 -0.0022188 -0.0049029 -0.0027979 0.0042518 0.0026567 0.0046441 0.0036498 0.0018729 0.00018775 -0.0030611 -0.0072329 -0.0022462 -0.00076332 -0.0027509 0.0071896 -0.0085752 0.0094833 0.0059527 0.0011744 0.0082939 0.0054231 -0.0070935 0.0052958 -0.0001965 -0.0082186 0.0047507 -0.0047109 0.001262 0.0018837 -0.008644 0.0026612 -0.0069893 0.0036506 -0.0082706 -0.00052598 0.0077298 -0.00061204 0.0090526 0.0097443 -0.0098576 -0.00082239 -0.0090749 -0.005542 0.0061317 -0.0091623 -0.0020165 -0.003198 0.0098394 0.008919 -0.0055506 -0.0093803 0.00061841 0.00065136 0.0012123 0.0026655 0.0025149 0.0015465 0.0058918 0.0081609 0.0038531 -0.0049171 -0.0017939 0.0058226 -0.0032454 -0.0014668 0.002471 -0.0061969 0.0097868 
AI -0.0091555 0.00011148 0.0090237 0.00039852 0.0082729 -0.0060469 0.0077662 0.005174 -0.00056498 0.0052522 -0.0088952 -0.0088535 0.0054219 -0.0028281 -0.009494 0.0071817 0.0079495 0.0057637 0.0038245 0.0064622 -0.003329 0.0062529 0.00811 -0.0038415 -0.0012865 0.0025689 -0.0058408 -0.007404 0.0096077 0.0080244 0.0074475 -0.0017791 0.0045462 -0.0040601 -0.0012285 -0.0026814 0.0074646 0.0075727 -0.0029039 -0.0012097 0.0042694 0.00049231 -7.7064e-05 -0.0056281 0.0096843 -0.0015606 -0.0088394 -0.0019668 0.0094549 -0.0026924 0.0057946 -0.0080738 0.00093913 0.0032139 -0.0064069 0.0070013 -0.0096844 0.0061965 0.0086838 0.0065978 0.00069991 0.0092421 -0.006229 -0.0083303 -0.0016676 -0.0070174 -0.0090454 0.0027924 -0.0032966 0.0062548 -1.8603e-05 0.0053277 -0.0061619 -0.0051949 -0.0081466 -0.002631 0.0070397 -0.0041427 0.0068025 -0.006602 -0.0099403 0.0066257 -0.00098698 0.0086073 0.0028737 0.0015976 -0.001478 0.0098409 0.00652 -0.0089672 0.0039823 -0.00092656 0.004167 -0.00066395 -0.0043557 -0.0088258 -0.0078612 -0.0059164 0.0026238 -0.0046102 
Demo 0.0090835 -0.0089778 0.0041363 -0.0027312 -0.0027588 0.0086287 0.0074881 -0.0014795 -0.0046379 -0.0042132 -0.000643 0.00027802 0.0047788 0.0059942 -0.0043401 -0.0051943 0.0065827 0.007405 0.0087181 0.003975 -0.0071483 -0.0048782 0.0061357 0.0067791 -0.0013894 -0.0083525 -0.0020877 -0.0091225 0.0015524 -0.0064241 0.0074087 0.004936 0.0052363 0.00075172 0.0060476 0.0038727 0.0062628 0.0045923 0.0090523 0.0071254 -0.0062149 0.0015593 0.0045102 0.0090825 -0.0082617 0.0060403 -0.0015887 -0.0064368 0.0080989 0.0050032 -0.0097097 -0.0045332 -0.0012722 -0.0059356 -0.0072466 -0.0017959 0.0050203 -0.0072089 0.0040298 0.0092793 -0.007667 -0.0092549 -0.0085025 0.0060269 0.0076355 0.0017238 0.00045683 -0.0064938 -0.00020477 0.0029383 0.0082224 -0.0075498 0.0032342 0.0080943 -0.0014559 0.0071236 0.0050492 0.0034677 0.0024115 0.00020798 0.001927 -0.0052017 -0.0035421 0.0058149 -0.0058586 0.0085014 0.0033984 0.0016969 0.0093467 0.0053107 0.0096553 0.0014094 0.004585 -0.0098864 -0.0088734 0.0081001 0.0020401 0.00049248 0.0062411 0.0031327 
you -0.0095287 0.0084713 -0.0017933 -0.0032004 -0.00064286 -0.0047603 -0.009168 -0.0061727 0.0080104 0.0091554 -0.0071395 -0.0030553 0.00082119 -0.0056985 -0.0049958 -0.0045603 0.0043117 -0.00054172 0.0046987 -0.0069034 0.0088278 -0.0080902 0.0042217 -0.007842 0.0058503 -0.0071467 0.0081654 0.007794 0.0034052 -0.0013023 -0.0089541 0.0030516 -0.004216 -0.0071221 -0.0050274 0.00099943 -0.010266 -0.0056137 0.0078352 0.0030545 -0.0055884 -0.004685 0.0054481 -0.0044864 -0.0054226 0.0045165 -0.0095024 0.00086996 -0.0022613 0.0014906 -0.0089737 0.001406 -0.0087117 0.0085393 0.00042948 -0.0066523 0.0076902 0.0050813 -0.0071722 -0.0076129 -0.0023425 0.002441 0.0079084 -0.0028274 0.0037536 0.004599 0.0048847 0.0029106 -0.0037501 -0.0053114 0.0068157 -0.0071499 0.0034264 -0.0033474 -0.010156 -0.001737 0.003771 0.007297 0.0016102 0.0068822 -0.0033665 -0.0043766 -0.0015776 -0.004962 0.0061461 -0.003585 -0.0055229 0.0091476 -0.0040274 0.0054873 -0.0049388 -0.0042294 0.0062378 -0.0046313 -0.0024889 0.0097782 0.0038524 0.0025337 -0.0084663 -0.0040048 
here 0.0059689 0.0091006 0.007847 0.0086283 -0.00029608 -0.003214 -0.0089427 -0.0085354 0.0045614 0.0089845 0.0049164 -0.0054817 0.007838 -0.001053 -0.0045382 0.0052896 0.010087 -0.0098913 -0.0038916 0.00066793 -0.0099949 0.0060904 0.0039524 0.0016612 0.0016385 -0.0065562 -0.0034921 -0.003637 -0.0074968 0.0045634 -0.0070436 0.0073116 -0.0033954 -0.0057304 -0.0034654 0.0046231 -0.0075975 0.0049054 0.0013735 0.0030177 -0.0011707 0.0047055 -0.00031903 -0.0048905 -0.0082495 -0.0050287 -0.0095756 0.0032727 -0.00032119 0.00024347 -0.0091131 -0.0046172 0.00073488 0.0087712 0.0032527 0.002388 -0.0074286 0.00026815 0.0051854 -0.00050493 0.0034989 -0.00063216 -0.0012496 -0.00044381 -0.0066036 0.0052887 0.0059049 -0.0090998 0.0068308 -0.0091631 0.00012881 -0.002608 -0.0024091 -0.0075192 0.0053489 -0.003823 -0.0044611 -0.003074 -0.0077915 0.0099412 -0.0088864 0.0035037 -0.0064312 -0.0044433 0.0020349 0.0087497 -0.00027965 -0.0059569 0.0076344 0.0042178 -0.0098915 0.0031631 0.0067564 -0.0018593 -0.00015428 -0.0072028 -0.0024016 -4.5856e-05 0.0064511 0.0024776 
nwhy 0.0095409 -0.0058125 -0.0048055 -0.0012883 -0.0027758 -0.0096825 -0.0045235 -0.0060359 0.0015019 -0.0048848 0.0011976 0.0094946 0.0088002 0.0011177 -6.5754e-05 0.010003 0.0077646 0.0023208 0.00098551 -0.0013871 0.0035669 -0.0073471 0.00033917 -0.0062566 0.0089724 -0.0003698 -0.00050148 -0.0081774 0.0091506 0.0046655 -0.0018453 -0.0054731 0.0038871 0.0073169 -0.0030495 -0.0036789 -0.0077623 -0.0035835 -0.0028872 0.0050722 -0.00093268 0.0052888 -0.0064499 0.00069154 -0.0051874 -0.0010259 0.0027539 0.00032811 -0.0040729 0.0088419 -0.0038302 0.0035643 0.0022969 -0.0019863 -0.004043 0.0048774 -0.0022037 0.00066881 -0.0076243 -0.0036314 0.0086143 0.0093877 -0.0023889 0.0040497 -0.0092538 0.0049263 -0.0065368 -0.0068148 0.0053804 -0.0089002 -0.0058557 0.001797 -0.0032373 0.0075557 0.0045176 0.0056184 0.0014172 0.0067148 0.0016576 -0.0036586 -0.0022035 -0.0098065 0.0019653 -0.0095526 0.0010725 -0.0047531 -0.0064356 -0.003271 -0.0040574 -0.0028991 -0.0086684 -0.00835 -0.002752 -0.00040811 -0.0093509 -0.00045119 0.0072807 0.0043167 0.0018255 -0.0014219 
we -0.0011246 -0.0015694 0.0073634 -0.0018266 0.008511 0.0067964 -0.0045292 -0.0066069 0.0027908 0.00082752 0.0064105 0.0077465 0.0025804 -0.0020294 0.0015808 -0.00036271 -0.00014347 0.006876 0.0061222 -0.0050486 0.0091016 -0.009263 -0.0034047 -0.0041884 0.002902 -0.0054766 -0.0019002 0.0005755 0.0025168 -0.0068383 0.0042786 -0.00070719 -0.0088591 0.0076489 0.0015291 -0.0073847 -0.0028964 -0.0016386 -0.0051771 0.0053111 -0.0089747 0.009075 0.001889 0.0055439 0.0011385 0.00066952 -0.0088351 0.00024202 -0.007676 -0.0082206 0.0098739 0.0039077 0.0016635 0.0030444 -0.00086549 -0.0069754 -0.0073172 0.0045549 0.0056377 0.0079318 -0.0099451 0.005572 0.0088306 -0.0052233 0.00041493 0.0053134 -0.0054777 0.0030314 -0.0012791 -0.0019289 0.0019298 -0.0044828 0.0089974 0.0092444 -0.0024767 -0.0018985 -0.0071928 -0.0044434 0.00019193 -0.0095033 0.0087632 -0.001758 -0.0045042 -0.0069757 0.0063415 0.0014266 -0.0067819 0.0080022 0.0039972 0.0045718 0.0026189 -0.0096991 -0.0034733 -0.0086527 -0.0091816 0.0098163 -0.0014442 -0.0068369 0.0015505 -0.0048974 
where -0.006217 0.0035891 -0.0086024 -0.0076658 0.0083739 -0.0010988 -0.0061918 -0.0088983 -0.0079496 0.0082296 -0.0069746 0.010033 -0.0098327 0.0043863 0.0046156 0.0083762 0.0049208 0.0095689 -0.0046029 -0.0072684 0.0084558 0.0054929 0.0027116 0.0020924 -0.0076926 -0.0086754 0.0011006 -0.0053845 0.0073754 0.0034225 -0.0097271 -0.0093197 -0.0051408 0.0021163 0.0070762 0.0075524 -0.0099568 0.0071541 0.0086176 -0.0044468 0.0065361 -0.0022544 -0.0011424 -0.0086465 0.006876 -0.0010088 -0.0094988 -0.0054729 0.0031132 0.0073574 -0.0058047 0.0067378 -0.0058083 -0.0059033 0.0013888 -0.0073026 -0.0099711 0.0013688 -0.00021702 -0.0029882 0.0053111 -0.0094754 0.0041592 0.0017334 0.0038151 -0.0092175 -0.004373 0.0020947 0.0091892 0.0039975 0.0066535 0.0076118 0.0031445 0.0045613 0.0028729 0.0045716 0.0025762 -0.0078302 0.0080532 0.0068629 0.0078002 0.0022088 0.0091381 0.0045699 -0.0095314 0.0026261 -0.0057743 0.0065966 0.0042468 0.0087062 -0.00038336 -0.009877 0.0038084 0.0014115 -0.0033404 -0.005817 -0.0088274 0.0020019 8.2962e-05 -0.00037168 
your 0.0083332 0.0067071 -0.0089402 -0.0041922 -0.0040792 -0.0032358 -0.0010955 -0.0013016 0.0072109 0.0038035 -0.0027574 0.00081048 -0.0023547 0.0023183 -0.0061926 -0.0099702 -0.0071389 -0.0011523 -0.0043721 0.0096498 0.0012753 0.0052438 -0.0015288 0.0055786 0.0074174 0.0058835 -0.0034528 -0.0073126 -0.0057393 -0.0070349 -0.0082807 0.0018057 0.0032277 -0.009187 0.00082346 0.0058213 0.0068757 0.0036281 -0.0092959 0.0046157 0.00014052 -0.0056942 0.0071077 -0.00081787 -0.0068309 0.0088254 0.0062494 0.0038609 0.0094131 0.0071621 0.0060495 0.0023135 0.0016545 -0.0011379 -0.0069157 0.00095623 -0.0039208 0.0062415 -0.0093963 0.0031549 0.001456 0.0058003 -0.0051603 -0.0034243 -0.00050095 -0.0073591 0.0016778 -0.0079718 0.0090765 0.00099979 -0.0063637 0.0030004 -0.0036179 -5.1285e-05 0.0053759 -0.0045681 -0.0095762 -0.0056941 -0.0019134 -0.0051472 -0.0039383 0.008931 -0.0042542 0.0025628 0.002505 0.0045279 -0.0085254 0.0091788 0.00016691 -0.0055732 -0.0051424 -0.0070099 -0.0042996 0.0072477 0.0027798 0.0010364 -0.0044124 -0.0012327 -0.004839 -0.0049157 
what -0.0099558 0.0049716 -0.0063502 0.0077911 -0.00074569 -0.0026577 -0.0073107 0.0096874 0.0046712 -0.008485 -0.0090252 0.0036411 0.0012714 0.0040132 -0.0014601 -0.0083408 -0.0067304 0.0062667 -0.0011412 -0.0019456 -0.0013662 -0.0083901 -0.0088599 -0.009116 0.00086991 0.0078969 -0.0038698 -0.0072928 0.0081512 0.0087671 -0.0059025 0.0055031 -0.0077369 -0.0059535 -0.0014457 -0.0027427 0.0048255 0.00609 -0.0019554 -0.0091151 0.0044116 0.0076092 0.0041463 0.005113 0.0030148 -0.0075567 0.001879 -0.008717 -0.0026699 0.0054894 0.0059912 0.0023861 0.0026897 -0.0039202 0.0039984 0.0007875 -0.0057236 0.0017709 -0.0014619 -0.0043423 0.0057296 0.0074007 -0.0082794 0.0086417 0.00258 -0.0059577 0.0025538 -0.0046768 0.0070425 0.0025432 -0.0096202 -0.0016887 0.0030651 0.0062245 -0.0058836 0.0022362 0.0024809 -0.0058022 -0.0088943 0.0088751 0.0035113 0.0011855 0.0023356 0.0040987 -0.0035403 0.0076397 0.0057279 -0.0047505 0.0048047 -0.00054798 0.0072192 0.0036739 -0.00020539 0.0071814 0.0028159 -0.0043318 -0.0073981 0.00018292 -0.0014255 -0.0047008 
