5 100
am -0.0083308 0.0078624 -0.00625 -0.0020183 0.0048385 0.001184 0.0062351 0.00020772 0.0099377 0.0093666 -0.0014559 0.0031312 0.0092648 0.0070982 -0.0040857 -0.0016847 0.0002715 0.0058383 0.00086074 -0.0081584 -0.0013314 0.0068363 0.0054986 -0.0062065 0.0056494 -0.0064174 0.0015601 -0.0036824 -0.001738 0.0098819 -0.0066588 -0.003375 -0.0085076 -0.0065541 -0.0092882 -0.00062634 0.0034467 -0.0086985 -0.0021833 -0.0066292 0.0098518 0.0073519 0.0034174 0.0017318 -0.0048681 0.0018389 -0.004533 -0.0045579 -0.0081123 0.0027212 -0.0083262 0.0078565 -0.0062397 -0.0020148 0.0048246 0.0013043 0.0062247 0.00023554 0.0099374 0.0093648 -0.001469 0.0030406 0.0092627 0.0070905 -0.0041777 -0.0016984 0.0002995 0.005845 0.00089034 -0.0081533 -0.0014522 0.0069358 0.0054145 -0.006196 0.0056556 -0.0064075 0.0015734 -0.0037734 -0.0017519 0.0098815 -0.0067579 -0.003285 -0.0085035 -0.0065447 -0.0092861 -0.0006553 0.003537 -0.0086948 -0.0021803 -0.0067282 0.0098513 0.0073449 0.0035076 0.0017457 -0.0048542 0.001853 -0.0045183 -0.0045432 -0.0081071 0.0026295 
i -0.0066302 0.0056946 -0.0024562 0.0059418 -0.00029121 -0.0076082 0.0024264 -0.009558 0.0098394 0.0086988 0.0070651 -0.0038088 0.0084954 0.0042579 0.0017949 0.0066082 -0.0094306 0.001634 -0.0082538 -0.0062858 0.0073138 0.0037348 0.00095554 -0.0023693 0.0012568 -0.0027905 -0.0068571 0.0026002 0.0065017 0.009728 -0.0033803 0.003322 -0.0069833 -0.0030637 -0.0085422 0.008722 -0.0030711 -0.0073644 0.0056123 -0.0033212 0.0096679 0.0047647 -0.0031296 -0.0065141 0.0002322 -0.0063002 0.00090136 0.00085174 -0.0061937 -0.0046277 -0.0049249 0.003521 0.0013479 -0.0060945 -0.0054349 0.0037199 -0.0013926 0.00070404 0.0097408 0.0080293 -0.004427 0.0091605 0.007724 0.00141 0.0075834 -0.0051126 0.00089522 -0.0025636 0.0026612 -0.0044081 -0.0041618 0.00073293 -0.0036716 0.0014783 -0.0031297 0.00084621 0.0047391 0.0087919 -0.0052725 0.0095737 -0.00020096 -0.0098911 -0.0054548 0.0004363 -0.0077941 -0.0019587 -0.0094985 -0.0060267 -0.006589 -0.00011222 0.0094835 0.0021705 -0.0095863 0.0052539 0.0053464 0.0055749 0.0063505 0.0062761 -0.0042699 0.0079317 
</s> -0.0032289 0.0013591 0.0051314 0.0018622 0.0094493 -0.0051926 -0.0051909 -0.0090895 0.0096427 0.0073633 0.0041071 0.0023111 0.0069568 -0.0014226 -0.0064441 0.003194 -0.0088349 -0.0067746 -0.0064829 -0.0025406 0.0046042 -0.0024681 -0.0081306 0.0053051 -0.0075286 0.0044632 -0.0036914 -0.0048346 0.002981 0.0094203 0.0031766 -0.0032841 -0.0039345 0.0039173 -0.0070502 0.0074186 0.0038934 -0.0046963 0.0012036 0.0032948 0.0093001 -0.00040972 0.0037765 -0.0030058 -0.0095672 -0.0025784 -0.0082298 -0.008329 -0.0023565 0.0006746 -0.0015236 -0.00081457 0.0089355 0.0098258 0.0043056 0.0061355 -0.00901 0.0011725 0.0095442 0.0066937 -0.0073849 -0.0047195 0.0061853 -0.0042706 -0.0006556 -0.0085268 0.0014909 0.0090278 0.0044322 -0.00066294 -0.0068714 -0.00547 0.0072422 0.0091527 0.008085 0.0080999 0.0079048 0.0013571 -0.0087931 0.009266 0.0063559 0.0035029 -0.002406 0.0074173 -0.0063021 -0.0032621 -0.002534 -0.0033586 0.0090023 0.0065037 0.0091157 -0.003004 -0.0026802 0.0087621 -0.0044531 0.0092967 -0.0027807 -0.0029047 -0.00043265 -0.006766 
who 7.4531e-05 -0.0028963 -0.0073806 -0.0021731 -0.00082829 -0.002853 0.0072908 -0.008734 0.0096049 0.0061648 0.0012148 0.0085736 0.0055513 -0.0071967 0.0053635 -0.00016323 -0.0083497 0.0049008 -0.0048002 0.0011132 0.0019649 -0.0087745 0.0028544 -0.0071185 0.003763 -0.008389 -0.00058751 0.0077926 -0.0004846 0.0092691 0.0098437 -0.010042 -0.00099037 -0.0092129 -0.0056923 0.0062122 -0.0092129 -0.0021399 -0.003167 0.010022 0.0090877 -0.0056681 -0.0093893 0.0004472 0.00065031 0.0010923 0.0026686 0.0025189 0.0013912 0.0061039 0.0018005 -0.0050964 -0.0035303 0.0058063 -0.0060345 0.0087599 0.0034253 0.0016528 0.0095051 0.0054871 0.0096641 0.0013915 0.0047705 -0.010079 -0.0090057 0.0080545 0.0021016 0.00073315 0.0062475 0.0030137 -0.0097971 0.0084152 -0.0018951 -0.0032242 -0.00059582 -0.0047081 -0.0089314 -0.0061685 0.0076792 0.0091129 -0.0071664 -0.0031065 0.00055672 -0.0056704 -0.0049352 -0.0045982 0.0045096 -0.00078597 0.0046455 -0.0069581 0.0089011 -0.0082939 0.0043036 -0.0077229 0.0058266 -0.0069694 0.008184 0.0080092 0.0033384 -0.0014932 
what 0.0037031 -0.0074223 0.00044995 -0.006363 0.0089801 -0.00026164 -0.00056835 -0.008013 0.0090548 0.0045207 -0.0018975 -0.0056627 0.0037121 0.0073715 -0.0030024 -0.0037139 -0.0075066 -0.0037185 -0.0028281 0.0050721 -0.00090886 0.0052919 -0.0064157 0.00079537 -0.0052182 -0.00087917 0.0027244 0.00019916 -0.0041374 0.0086123 -0.0038826 0.0037275 0.0022995 -0.0019651 -0.0038979 0.0046893 -0.0020712 0.00078431 -0.0076729 -0.0036476 0.0083732 0.0093862 -0.0023037 0.0040882 -0.0092147 0.0049384 -0.0065544 -0.0067517 0.0054384 -0.008918 0.005383 -0.0095637 0.0041975 0.0015814 0.0039128 -0.0093386 -0.0043306 0.0020965 0.0089577 0.0038611 0.0066821 0.0075487 0.0029521 0.0045659 0.0030358 0.0046404 0.0026658 -0.0079528 0.0079247 0.0069219 0.0080228 0.0019988 0.0091635 0.0045858 -0.0096385 0.0027035 -0.0057527 0.0066346 0.0041643 0.0084602 -0.00041475 -0.0097241 0.0038053 0.0014829 -0.003161 -0.0058326 -0.0087389 0.0021021 0.00010898 -0.00015051 0.0081915 0.0068305 -0.0090002 -0.0042197 -0.0041765 -0.003264 -0.0011863 -0.001408 0.0073336 0.0038896 
